{"test_signal": [0.9859583241224525, 1.0364095486704898, 1.3541970324213195, 1.0360649302509881, 1.06793247199044, 1.286366749828507, 0.9903077110593189, 1.1548791534752954, 1.1172854114376625, 1.1898158808955666, 1.2156814503385605, 1.0162043124401816, 1.1415711703639313, 1.1351634440336495, 1.0391415665319441, 1.319898927144513, 1.1741080169950173, 1.111937906916177, 1.0610024348228584, 1.2443066364067548, 1.1563661930313174, 1.407496733076299, 1.5091640232322223, 1.3082163089444878, 1.2863341258734737, 1.3464930021701813, 1.5322070503733707, 1.333961993151493, 1.5441097745042078, 1.3784073272953303, 1.1281132212198273, 1.7519840523589674, 1.647948292918426, 1.5017598003211077, 1.5726212973764244, 1.5920364215870584, 1.831303578086925, 1.5447785972644261, 1.651971379584584, 1.5853502736308254, 1.5468587529443887, 1.7218111512234922, 1.7374353397709548, 1.6004846504009702, 2.053215165821392, 1.2759248838868498, 1.9389277114298096, 1.5550576309511812, 1.6243239285909488, 1.8489970463988596, 1.9073546018819612, 1.9846846419915614, 1.5746548933565516, 2.1171268592153956, 1.6603031875243632, 1.8758113187502212, 2.0348952728305063, 1.8555227725093062, 1.8460325654334446, 1.9957240842161028, 1.8781815412233984, 1.7134511357480822, 2.063559247827621, 2.073486107361968, 2.007079935733812, 1.9855213956690299, 2.106751031055185, 2.094437080754977, 2.1345228480072618, 2.018366477795581, 1.67046655140098, 2.0773154679948163, 2.0766555071393635, 2.1159932385897218, 2.2140550961168324, 1.7808179405106461, 1.5465060615207353, 2.1490450938871217, 2.1079014851876967, 2.0096756609748017, 1.8209915604010831, 2.276071790757232, 1.958236776776307, 2.3350894580857227, 2.069462554536159, 2.1891186518931653, 1.6227199759102202, 2.106602234905843, 1.9059521730865878, 1.816371320533654, 1.9655097732413338, 2.445288118979059, 1.9246803450703347, 1.744258210480232, 2.1893581706742524, 1.8767395987316566, 1.997163532583844, 2.2622824799455237, 2.170439752359965, 2.1118434853538877, 2.174529982476892, 1.9908435735665748, 1.8062913291549014, 1.9720827839374862, 1.9173670020242513, 1.9824705359343715, 1.9643199928535033, 2.048289563671263, 2.115352450781229, 1.874593298285767, 1.9125115038943217, 1.998254796282286, 2.1286584116643064, 1.885833645011134, 1.6294482086655868, 2.073338681551476, 1.7180546969592154, 1.849254934144093, 1.828484247995832, 1.987421080740523, 1.6119782072912596, 2.0835107503368766, 1.810970610751104, 2.0465469642785936, 1.8126739440063377, 2.2921231246164053, 1.8650216321974293, 1.7850381109118993, 1.716907357236094, 1.4380492146129595, 2.0610355619033593, 1.5714346640651897, 1.8143893360110632, 1.900255215246836, 1.8716359759235308, 1.7401299754791484, 1.6265534407512372, 1.81499606986019, 1.695489000468236, 1.4521399902166143, 1.5318221315917016, 1.766247066653117, 1.7963752376435536, 1.2653319394689888, 1.67462235463215, 1.5751500965018845, 1.7414397242903341, 1.5985446340719893, 1.5353607804992466, 1.7021804184671727, 1.7149825140904156, 1.7090807401651942, 1.518698235182781, 1.5804501907870467, 1.7604868559773328, 1.457350595596033, 1.3455132396344935, 1.5130823451170212, 1.2852678947724114, 1.5580888408860618, 1.2706085062557892, 1.3331975146142927, 1.5420431094113924, 1.2112986455860586, 1.284496672241097, 1.3809313262895127, 1.356917902551631, 1.066372161087555, 1.4113801603052376, 1.2258502751743987, 1.2561124318263754, 1.326588182826137, 1.3250657084847826, 1.222094634333095, 1.3012530010771433, 1.1853066524221036, 0.9347038302989141, 0.9123161431420259, 0.9544776439396897, 0.919747626305951, 1.0000721573810987, 0.6866981988605922, 1.0280848352538836, -0.8926688064234369, -0.9064008517443571, -1.0358928715925417, -1.2270944525733478, -0.7455441265657716, -1.2042575016585477, -1.1813599392400558, -1.117859128522054, -1.3722324343370333, -1.3650356961891, -1.172078500627891, -1.0277314178636876, -1.2708665404052453, -1.1588992295573564, -1.1604727042233463, -1.218510173533946, -1.4124507192507538, -1.1326213496104978, -1.3404770336941039, -1.4782263688658295, -1.508070422982477, -1.2054854567251367, -1.3561267558611505, -1.4922093671356582, -1.2487601461962905, -1.303021719463327, -1.4321949920445887, -1.63421541021432, -1.4834601593469139, -1.4347005329382463, -1.6440925391654322, -1.1249383845110268, -1.5408928444016676, -1.7008748865307497, -1.795896040310627, -1.4032899810120096, -1.6003317927548455, -1.5996002967662237, -1.719753977492704, -1.519055735814662, -1.5847968981881662, -1.81591908819009, -1.7330585641576481, -1.8767659502147225, -1.6234374833434704, -1.7071394596970788, -1.574701328527803, -1.6402871461859763, -1.6141567018611904, -2.0228768725517816, -1.8720194042069846, -1.9480515288731135, -2.005162800181968, -1.9232965197327059, -1.6485729729137408, -1.6922244803288313, -1.5992263634111765, -1.7505319227620557, -1.76336350641238, -1.9029813780264582, -1.9097104924587949, -1.9252142629154259, -2.005627479122754, -2.088296025071538, -1.877564989514357, -1.7004457999023086, -2.067452753534866, -2.1039076669627863, -1.7695015063005524, -1.9532388865446377, -2.1929571646900827, -1.9752266222902608, -2.3126966523789094, -1.9165720822856436, -2.024063857614502, -2.158849244138049, -1.9443298965969438, -2.0483290519943202, -1.7648549313864283, -2.0846398473297003, -1.911379893041255, -2.1340567212885, -1.928936446387707, -1.8816757504435087, -1.8645492081652684, -1.8451592835736916, -2.180143711799537, -1.714544775401735, -1.7388038835551283, -2.0040904157050474, -1.9572715870458643, -1.8494701457985143, -2.2492900047406024, -2.027359952265367, -1.9282875442558958, -1.9153575315302518, -1.9173818641570213, -2.1672609935187395, -1.845020705468312, -1.8466463944092946, -1.9166961626655752, -2.0755806232399396, -2.140627083124598, -2.0039710902072216, -1.9168484624392106, -2.1407310619310698, -2.0388952720627023, -1.8868160548109179, -1.8969065447876923, -2.0891122517283116, -2.25588199947083, -1.990239954576858, -2.2124640195859757, -2.1704564851683807, -1.8243925727412604, -1.8795429810049347, -2.0971701929523503, -1.948144842487969, -1.9096839910800973, -1.8302523431535176, -1.7178384507358024, -1.8136168156473238, -2.214803237237651, -1.8050032378351486, -1.8975987761659803, -1.86332293149488, -1.8377914977574576, -1.8561520042367396, -1.8739892704733927, -1.6455861990508063, -1.6259526727167068, -1.5576970017444713, -1.622849557814926, -1.6265745583488884, -1.6743194435127786, -1.911803928001306, -1.553484500895551, -1.746482755462882, -1.7063927985368066, -1.9030961611186534, -1.7425431775533824, -1.1854986739426696, -1.6910165785585745, -1.5004266381182247, -1.4325120761112389, -1.5179453349432617, -1.6582796413569545, -1.5851272199812252, -1.4804672882148198, -1.5939846369535293, -1.717401583055279, -1.6635324550911956, -1.2541369773985707, -1.3662647760970104, -1.3533626866622601, -1.3020042717575881, -1.3854436785406592, -1.5579894477712504, -1.0543688248078655, -1.4319306593083756, -1.3187117358989227, -1.3193061494906104, -1.1349833863157548, -1.3399130599842073, -1.5194383222229666, -1.5073322935272646, -1.4113996203450787, -1.1158238273729923, -1.0315767523223967, -1.2396064555621593, -1.2574194961378122, -1.0715949479502656, -1.1406902990325727, -1.2452167716556959, -1.2828107212751632, -1.0883249214219666, -0.932825921907674, -0.908346479744617, -0.9412210393800906, -1.1203213533480396, -0.841424502828364, -1.315594896355973], "rand_tv_weights_365": [1.260009, 1.1251248, 1.5128225, 1.5665008, 1.1370446, 1.9355843, 1.9407133, 1.2874117, 1.8810353, 1.157158, 1.8381256, 1.2399748, 1.9701254, 1.1886015, 1.847832, 1.1962761, 1.9080092, 1.9961286, 1.1543757, 1.9731428, 1.3202858, 1.9440841, 1.0825509, 1.8899852, 1.1294379, 1.3318426, 1.4368915, 1.2129073, 1.2189734, 1.1434574, 1.8932587, 1.2049529, 1.0099018, 1.4320234, 1.0105944, 1.3932947, 1.6525702, 1.6194412, 1.5881148, 1.9939347, 1.6073586, 1.0846906, 1.1239092, 1.5866054, 1.198425, 1.8267117, 1.3783275, 1.6846836, 1.0117115, 1.1372521, 1.9348722, 1.0610085, 1.1604218, 1.6128768, 1.6222852, 1.2217849, 1.866072, 1.4966527, 1.3254617, 1.5736847, 1.3335222, 1.6546728, 1.1541898, 1.3456747, 1.6786641, 1.9538013, 1.9981995, 1.0415326, 1.1201183, 1.8712399, 1.0677251, 1.8377792, 1.7911067, 1.0430072, 1.6489868, 1.4939204, 1.9606475, 1.9696769, 1.2378306, 1.1771605, 1.0128873, 1.6194773, 1.0779224, 1.0515078, 1.6458735, 1.3994089, 1.4607634, 1.1204899, 1.2544499, 1.108709, 1.2030885, 1.5256123, 1.8159761, 1.2185279, 1.6012484, 1.2609409, 1.1156162, 1.1746954, 1.2814227, 1.9855932, 1.7702509, 1.2593399, 1.1001321, 1.3905866, 1.6367885, 1.4147965, 1.2350267, 1.7467984, 1.0891133, 1.9344125, 1.0806077, 1.9409444, 1.4795355, 1.567752, 1.6844249, 1.3241073, 1.8270345, 1.3932274, 1.7977691, 1.2875737, 1.8815139, 1.801261, 1.2157294, 1.7263525, 1.4189828, 1.0599824, 1.4658377, 1.0161446, 1.1984839, 1.8125725, 1.7792542, 1.2772468, 1.5128316, 1.5516724, 1.2998322, 1.853818, 1.7526371, 1.2236569, 1.4963524, 1.7335295, 1.3302736, 1.886347, 1.9451454, 1.0984141, 1.3276141, 1.2059294, 1.5434011, 1.1818025, 1.7267629, 1.4270882, 1.4602771, 1.8037019, 1.2254111, 1.8869293, 1.5700805, 1.5396846, 1.1007517, 1.6130044, 1.4040112, 1.1146254, 1.2667544, 1.9344659, 1.5730454, 1.0181612, 1.1067765, 1.7901214, 1.4006859, 1.1813395, 1.9009949, 1.8972313, 1.4510688, 1.2215714, 1.1215065, 1.9075877, 1.8424393, 1.2189314, 1.9971476, 1.787452, 1.1402698, 1.4853874, 1.7012968, 1.3530583, 1.6355155, 1.1698541, 1.0292759, 1.7911384, 1.1504261, 1.1441166, 1.2242269, 1.8245186, 1.1689973, 1.8391844, 1.3080016, 1.9115359, 1.546732, 1.0960654, 1.0129099, 1.5095565, 1.6223275, 1.2371866, 1.4657004, 1.2115853, 1.8356062, 1.2919126, 1.8061468, 1.6425724, 1.4882089, 1.2923321, 1.5957703, 1.2340479, 1.4607761, 1.6277902, 1.4089751, 1.5287624, 1.8781892, 1.3631028, 1.2894357, 1.1071069, 1.0507058, 1.7264375, 1.9015175, 1.344107, 1.1366833, 1.2200255, 1.635432, 1.0955961, 1.2280877, 1.8232052, 1.7606865, 1.9745736, 1.6175611, 1.9577635, 1.64444, 1.5569529, 1.7156909, 1.905242, 1.106974, 1.3465834, 1.454012, 1.152565, 1.826754, 1.242413, 1.8464699, 1.4340245, 1.082584, 1.6675633, 1.4083777, 1.4823991, 1.4173572, 1.8032573, 1.5119958, 1.2657652, 1.3308683, 1.3198606, 1.1924403, 1.3739662, 1.175178, 1.7542571, 1.5381365, 1.1643077, 1.3307801, 1.217006, 1.6508261, 1.5659683, 1.4402655, 1.4274431, 1.6890621, 1.184826, 1.6799386, 1.1344721, 1.4925547, 1.1522757, 1.3803275, 1.4306487, 1.5890582, 1.1424858, 1.9156634, 1.2772547, 1.0223496, 1.0244969, 1.2606573, 1.4736476, 1.9632815, 1.8042832, 1.9274347, 1.9477114, 1.6001567, 1.0172153, 1.6764696, 1.7381299, 1.0556735, 1.6088726, 1.3266741, 1.603112, 1.3223243, 1.3558237, 1.8834033, 1.3454611, 1.6014303, 1.4445678, 1.6623049, 1.4088277, 1.748926, 1.1660905, 1.9766892, 1.9017219, 1.4504521, 1.1579504, 1.7629652, 1.3325969, 1.6692497, 1.2264518, 1.4784814, 1.727919, 1.9873571, 1.2964456, 1.8039002, 1.17543, 1.4968541, 1.4174213, 1.3135312, 1.9489571, 1.5298223, 1.1744827, 1.7969936, 1.7553077, 1.2768965, 1.1034991, 1.0501622, 1.2637344, 1.2307473, 1.4025978, 1.8407236, 1.1281898, 1.2595897, 1.3112829, 1.5595029, 1.0103623, 1.1323395, 1.046914, 1.5341343, 1.6052441, 1.1427884, 1.7459634, 1.5943744, 1.604236, 1.0612298, 1.3869409, 1.1632556, 1.1480192, 1.4611227, 1.2494751, 1.8499518, 1.3055655, 1.056229, 1.6874694, 1.4079398, 1.0001444, 1.6634097, 1.8069637, 1.053822, 1.4815752, 1.6825476, 1.1935612]}