{"test_signal": [1.0709478747234968, 0.914999474239918, 1.0707875361263175, 0.7965093221175041, 1.1817738518947, 0.85575659770624, 1.1038707591672756, 1.102173894375924, 1.016231490327322, 1.5850817299126185, 1.081619706270526, 1.2590952588736077, 1.3694979175699034, 1.0396461928403333, 1.4400262217216473, 1.2370308269659385, 1.4238354790806813, 1.1514020608747288, 1.1504916935501144, 1.5027391291371175, 1.4128037451609683, 1.3745030487498067, 1.4658387098919239, 1.4647633060102063, 1.22833395392347, 1.0851935807027935, 1.1805121159911622, 1.180015204081087, 1.1307700291481408, 1.3816192230909488, 1.414514902037823, 1.5027895676277925, 1.5556619996279129, 1.4803513511552742, 1.5143497014538367, 1.5776895674817089, 1.4312196978400995, 1.4876482438197565, 1.6137893220361985, 1.5203549436724622, 1.5496501416522008, 1.632750213735131, 1.8620093190430436, 1.7222434120353658, 1.6364134797161614, 1.6116680853505359, 1.6944186311633114, 2.0599167074551974, 1.2633045447323883, 1.8272424716885727, 1.7931793743861266, 1.8995566195162803, 1.6080639439338347, 2.1080972929751036, 1.951502502278102, 1.8038268097144434, 1.845444708013418, 1.7237310884170638, 1.8481968296132836, 1.8283164793451845, 2.000300266853924, 1.921102988549992, 1.8633743247205756, 1.9857384253811865, 1.9753904025496793, 1.9330387887801173, 1.6776659908795797, 2.0685096645176513, 1.7460324737984494, 1.776107435732786, 1.9180470305182764, 2.016659381661953, 2.1567555519852237, 1.6979020666380937, 2.176919925487106, 2.206599219988787, 1.8965306972220177, 1.9398595813280324, 1.8883279456300646, 1.8873534742943585, 1.7803980871070213, 1.7310258786990167, 1.9574503415028663, 2.0285983829071115, 2.2665453166791645, 1.8440676751418161, 1.6821653141452768, 2.0193089289950503, 1.928482755874521, 2.0526834623357497, 1.9400865420186033, 1.8111072123948047, 1.8965848547879327, 2.11994084822447, 2.0397383716823168, 1.852540686067556, 2.127454120051303, 1.778151394681236, 1.912784659680535, 2.0208021414405892, 1.7838316181435343, 1.8067814925380485, 1.985316733377419, 1.9676071722905115, 1.9383901436589763, 1.8873467625307703, 1.8025369920821301, 1.8461281824438207, 2.414970747943119, 1.85976881347358, 2.1742467169414623, 1.8546607303366636, 2.1417592834029406, 2.115530662113609, 1.991924107214921, 1.8213721534013017, 1.7039652250945974, 2.0482177545135225, 1.7032387717641684, 1.6968715075658973, 2.1084384683041972, 2.090988683396229, 1.8687905225298604, 1.817392589849363, 1.7456044212996091, 1.8886258101077624, 1.753749483885, 1.5895749624617166, 1.6919503732328647, 1.8335633452152262, 1.5471785639451734, 1.6279551530173464, 1.7823028571040187, 2.006060641599049, 1.7678844906313727, 1.734358457168062, 2.007659248330447, 1.5462694033924678, 1.5833868620506706, 1.8071846184489604, 1.8295748623356758, 1.7238099379130323, 1.2491307148599602, 1.739619765946581, 1.715409758627758, 1.608584458637703, 1.687696891767709, 1.7849645404703987, 1.5672616403608652, 1.4048442094101685, 1.2548636520210863, 1.5256292002880685, 1.3941465988287125, 1.401990007639607, 1.3012891800836297, 1.497050343959266, 1.5509056009634146, 1.4901481523346536, 1.2413497931325155, 1.5269544681754321, 1.4248840070037316, 0.988513061122472, 1.4349986042454947, 1.0240291767809993, 1.1423647930286147, 1.4553591622329847, 1.378145956249834, 1.1669954650091336, 1.1145028668368564, 1.2821595262166456, 0.943996796449027, 1.2582793326631234, 1.1359930683985635, 1.272929160230161, 1.1269748471558245, 0.9654705652094278, 1.1419936458189113, 1.0420615896846064, 0.8641949444578595, 0.8856750269626112, 0.8920207898814102, 1.0333217042008271, 1.1234215171787827, -1.0128842285198887, -1.206665280240318, -1.100253959326229, -0.9751867316565135, -0.9157859674021135, -1.2355905583375895, -1.0691179388496455, -1.1872962495403556, -1.468917863023901, -1.3570095752157567, -1.2646996899146972, -1.2743292712727459, -1.2729026615847878, -1.3208599569841304, -1.1919132468126101, -1.407517264892599, -1.5195251835721961, -1.2205844172178089, -1.405862618953648, -1.2107895340495767, -1.4707730677210404, -1.1652932374576226, -1.5635192773396887, -1.574000899929713, -1.3049339687479335, -1.158152678143677, -1.5599663765369007, -1.220430811563963, -1.242909980880425, -1.3677853676780596, -1.533824947671838, -1.8436713684095318, -1.7658203093859943, -1.6666909776854448, -1.4845149963423752, -1.6027987458932613, -1.6874157322914536, -1.5890950363897984, -1.8640483925455325, -1.5717457767264462, -1.7855556680226714, -1.4646775086609316, -1.6454859579503254, -1.7955431135154893, -1.77383428017484, -1.947277845141127, -1.6929285866072372, -1.8811739869012454, -1.7585319162556314, -1.5816610254142656, -1.7131882461288572, -1.7035568720940713, -1.389792942979076, -1.6925167277801612, -1.6397946112716844, -1.8551906991216287, -2.005746891552324, -1.802243425246584, -2.019769092797969, -2.3067094837550632, -1.77404671304595, -1.8219973658628037, -2.04093441840424, -1.6946400356151912, -1.9086674981903173, -1.9748493711566641, -2.0551618097886206, -1.7444861678275478, -1.9910206301073894, -2.0071705343155184, -2.008130333011304, -2.061475352990636, -2.202329369922932, -2.064855435284176, -2.0918655376521893, -1.8593128549063225, -2.1656052396172254, -1.8697348935913087, -2.054457943669736, -2.102376404454297, -2.009521498823311, -1.9810728374815663, -1.9734868625707407, -1.9047198740144777, -1.9617003067209715, -2.228552466622873, -2.100656189658224, -1.7542257988851522, -2.0169795461842495, -2.3518335411359463, -1.974828068656105, -1.7449960345514652, -1.8244336802051202, -1.990949326259102, -1.9657533042685669, -1.9004887597040792, -2.0196581581582227, -2.0675410579847497, -1.747403867769176, -2.0501163181645468, -1.8359454541842386, -2.2211015693321827, -2.0995549649713605, -2.1513154646340458, -1.9125186622815193, -2.065045763816701, -2.06336869815569, -2.0998886066140887, -1.9347602947478768, -1.8047297029869684, -2.0355596540866654, -1.8487911986623131, -1.9366277029335375, -2.0207756238667884, -1.8689797276128983, -1.713504282961925, -2.2977632745315395, -1.7953437155230387, -1.6271006365088874, -1.9100650236556003, -1.7613763487569296, -1.7209157953041578, -1.7811230191063858, -1.812441448221182, -1.6449504758030202, -1.6636890905987411, -1.7935532035237702, -1.712091457929918, -1.93709739787421, -1.8147864609802549, -1.7605160579401569, -1.775992595676925, -1.8582591476464285, -1.5571773662637645, -1.682823009430612, -1.612993315675244, -1.9066793394679988, -1.7761628678858934, -1.7909786808486188, -1.701971106812487, -1.4092780238252363, -1.2686310041183633, -1.6052880679420825, -1.5655749053578494, -1.637477501018373, -1.6751826532419036, -1.447245489080538, -1.627567348704708, -1.7080511649190577, -1.4421479636354584, -1.5468929900227422, -1.4589620220735036, -1.445615561440956, -1.3315854619486636, -1.3680279722752036, -1.308239998666699, -1.4451780836035646, -1.4288180528537089, -1.3399233706524216, -1.344371795530357, -1.2909434558498445, -1.2938699069829862, -1.0085052933070537, -1.3451620908183741, -1.2277149035753891, -1.2632377175886118, -1.06637867576263, -1.3646734044315132, -1.4192583835419201, -1.037527250030033, -1.0881719816717976, -1.1558662559996271, -1.281068636866524, -0.9606860168376868, -1.0689910916493859, -1.2059072283704482, -1.1729117851978788, -1.180850420822423, -0.85675880632198, -1.0767106510065494, -1.1868413295983549, -1.1041621850285153], "rand_tv_weights_365": [1.90103, 1.2066537, 1.492222, 1.6599013, 1.8200117, 1.4986108, 1.6258502, 1.0905771, 1.0389785, 1.2277331, 1.927715, 1.2591617, 1.1590661, 1.5879739, 1.1452382, 1.2402063, 1.6753188, 1.0142347, 1.5944051, 1.2081637, 1.2219029, 1.3458641, 1.1559144, 1.9397188, 1.4272697, 1.2694959, 1.5957541, 1.177698, 1.3170059, 1.8294713, 1.2864271, 1.1521424, 1.2076881, 1.7543597, 1.1756374, 1.7604544, 1.5324766, 1.4511926, 1.058273, 1.8760482, 1.3840937, 1.8982337, 1.8865164, 1.8079659, 1.8740019, 1.9705975, 1.4526454, 1.7374961, 1.1889702, 1.8686481, 1.1244278, 1.8585798, 1.0240591, 1.8558926, 1.7750242, 1.1671312, 1.1917331, 1.8159435, 1.4883804, 1.5100457, 1.377636, 1.6649588, 1.0104118, 1.8682682, 1.7626605, 1.2139939, 1.6919149, 1.6328783, 1.581065, 1.4488926, 1.6587392, 1.1516161, 1.533948, 1.7975157, 1.8942762, 1.5146304, 1.1204434, 1.547856, 1.6612044, 1.6597142, 1.7377905, 1.8186539, 1.977066, 1.9072945, 1.0944173, 1.2002183, 1.9205259, 1.0188776, 1.649866, 1.6660139, 1.6075718, 1.7529279, 1.5867701, 1.3337494, 1.739074, 1.6899688, 1.0577313, 1.2563034, 1.0505038, 1.2409158, 1.4045958, 1.6364144, 1.5195105, 1.4542999, 1.0625554, 1.1209482, 1.5937738, 1.8942219, 1.6280245, 1.4296146, 1.6313601, 1.4889203, 1.9560837, 1.2630091, 1.7852334, 1.6130397, 1.5261812, 1.410587, 1.0336172, 1.2630248, 1.2201921, 1.3584988, 1.5543474, 1.4958188, 1.2816856, 1.4356602, 1.3476595, 1.7394634, 1.7262073, 1.5004272, 1.6689366, 1.747932, 1.0072575, 1.0744729, 1.508967, 1.8404284, 1.4849507, 1.1470229, 1.8259837, 1.0782641, 1.5835627, 1.0266373, 1.9611012, 1.4803326, 1.3399315, 1.8170185, 1.3063394, 1.9982633, 1.9001016, 1.2415259, 1.4259467, 1.8163651, 1.5678923, 1.3714806, 1.4132838, 1.1913692, 1.8526415, 1.2609572, 1.5847641, 1.3927328, 1.8105259, 1.4157205, 1.5488069, 1.4965149, 1.1928133, 1.877084, 1.3933007, 1.4733135, 1.4192353, 1.6093217, 1.8610026, 1.6235253, 1.5334032, 1.9120379, 1.8067087, 1.2445596, 1.2203067, 1.5027008, 1.2054748, 1.0436226, 1.7241433, 1.2251105, 1.418587, 1.5345697, 1.3056137, 1.9356902, 1.5608038, 1.8771449, 1.8733963, 1.4423549, 1.6639508, 1.656505, 1.9439817, 1.582295, 1.2418845, 1.9484924, 1.8867008, 1.0730266, 1.5009844, 1.6972472, 1.7821042, 1.1957214, 1.7490435, 1.3121362, 1.3877652, 1.0784754, 1.3562776, 1.7390275, 1.9335881, 1.3527032, 1.2167257, 1.6101077, 1.0036527, 1.9068678, 1.4899664, 1.8701357, 1.8860148, 1.6265513, 1.6436788, 1.8521209, 1.6261315, 1.8466787, 1.9921596, 1.3537606, 1.3248541, 1.3299151, 1.2444876, 1.2764241, 1.3645844, 1.4828494, 1.9228951, 1.5710472, 1.5254168, 1.9257336, 1.5964372, 1.4515024, 1.2777868, 1.1501998, 1.2178478, 1.5135685, 1.5120504, 1.1830245, 1.3871609, 1.8324264, 1.8353323, 1.7766613, 1.119096, 1.630085, 1.8769003, 1.9046221, 1.4395142, 1.8626311, 1.2850004, 1.3030521, 1.5518987, 1.8756996, 1.7871454, 1.323669, 1.5288315, 1.9225026, 1.4758708, 1.1502263, 1.1360337, 1.6313996, 1.4976296, 1.5912285, 1.3284515, 1.3870161, 1.4734764, 1.8604029, 1.0572036, 1.5085778, 1.6951466, 1.8739046, 1.365819, 1.1681067, 1.7564982, 1.9378718, 1.6037519, 1.2088559, 1.9937145, 1.7793235, 1.8983729, 1.4956649, 1.8129604, 1.719872, 1.4275204, 1.3188793, 1.3353055, 1.3700772, 1.7467167, 1.3013954, 1.7082403, 1.6139759, 1.7962178, 1.8089079, 1.1712857, 1.156527, 1.1260578, 1.340713, 1.5289981, 1.1822565, 1.055121, 1.8082665, 1.352758, 1.6904828, 1.6664703, 1.2996151, 1.2609874, 1.4789853, 1.0123415, 1.3059756, 1.3873762, 1.4899642, 1.0916588, 1.7318901, 1.8943891, 1.9917835, 1.5390041, 1.1772024, 1.7686582, 1.4030352, 1.7352621, 1.1546495, 1.6408817, 1.15073, 1.7773945, 1.7358647, 1.2925375, 1.6695409, 1.8558079, 1.0652778, 1.5653353, 1.5711877, 1.9871279, 1.4480931, 1.1340927, 1.8984371, 1.3333478, 1.6005308, 1.9355867, 1.3254499, 1.7997703, 1.8128635, 1.9189587, 1.1498256, 1.6825794, 1.2853683, 1.6665245, 1.8377146, 1.3589988, 1.0070868, 1.201466, 1.3292846, 1.9353041, 1.3013809, 1.3657047, 1.1866969, 1.7821347, 1.8533978, 1.3731787, 1.4435732, 1.2981093, 1.4634922]}