{"test_signal": [0.5060193202368566, 0.9938450402744079, 0.7010434208579492, 0.9302084566603824, -0.1327895439978346, 1.1535210279347057, 1.1556258020705217, 0.1675836985927126, 1.252474250982623, 0.6253775982330231, 0.8604205252161581, 1.1049483649132046, 1.3008790547850089, 1.2448780647064697, -0.5222030708966536, 1.1268249111491428, 1.160659505280866, 1.1385769428258343, 1.292727025655207, 0.8397791988659902, 1.3239297094861766, 0.25891978323098597, 0.836390157961422, 0.8070621951499912, 1.1169770319899934, 1.3646431320832821, 1.2739958223399195, 1.45455159354984, 1.1587032593494817, 1.4525455876835713, 1.454837899026711, 1.2407974777033937, 1.2619554368659078, 1.7037490484867837, 1.478176636333074, 1.6711456010833428, 1.5683487811680752, 1.604745507175924, 1.4054720564151186, 1.450308513599369, 1.4279614936181635, 1.9273970962174571, 1.2100507293869067, 1.8001859082439855, 1.4932096625217754, 1.5090319514347141, 1.5476876645696112, 1.4953151038492825, 1.5729723539378433, 0.8096317733263094, 1.0831395731702698, 1.7429787877858847, 1.7115662236568001, 0.7842338846156063, 1.5072823239127802, 1.4254040863640256, 1.018402025337986, 1.7038026636759938, 1.6447069268210655, 1.0071579570109406, 1.7583342209005528, 1.8687868303621475, 1.290317779733861, 1.5660161636784122, 1.82582385709496, 1.7542402062563758, 1.7699208033941884, 1.7490502493608078, 1.969114769484626, 1.8441120880054296, 1.8492057343939448, 1.7631333122196835, 1.7923779384518226, 1.9948431871859194, 1.552833723482764, 2.0573850246710563, 1.2494197466735013, 1.881325684260602, 1.0003715234439463, 1.9225170479052427, 1.9131353456016247, 2.0125568254839425, 2.079723000735001, 1.8143936965145828, 1.9390030336820747, 2.0671137692725634, 1.919172223780096, 1.7248521364369749, 1.723056840920965, 1.6963339133263888, 2.115783917347269, 1.796482386672797, 2.098892633606715, 2.0248067460027914, 1.9540370817390742, 0.3496146346457423, 2.0487226052373133, 2.063700539389458, 0.520834381579228, 1.9255395045791779, 1.7694361001060588, 1.8975068846602614, 1.9019773710383792, 1.893118603659097, 1.6938009383556967, 1.2407413679702781, 1.9682136275013984, 2.024563290750748, 1.5347331774687385, 1.5532965395995022, 1.7230021682513528, 1.736944832781986, 1.9785012164582079, 1.518049857257545, 1.7302790960183307, 1.8543484148374219, 1.7765092189779115, 1.6411640820606515, 1.887656232208289, 1.355221648535892, 1.451425038204917, 1.6656977677459883, 1.8581677894373483, 1.5099123033709132, 1.248602959613053, 1.9153899599751305, 1.2727759425043894, 1.7327257434504353, 1.502186819700528, 1.7228580517973469, 1.727699989867138, 1.0341422850426514, 1.5205145006714629, 1.4912752721665883, 1.289540436522921, 0.34813171399034903, 0.41594084977929113, 1.6180056923722281, 1.0194145544751299, 1.401797424857566, 1.8069708669054734, 1.689560945985448, 1.7042994256908162, 1.1639392341330512, 1.3373897612648498, 1.2426493039299562, 1.4413074577235097, 1.4580423140788483, 1.3557082585952447, 1.5228275421543218, 1.4655317503673189, 1.4580521976943668, 0.9974922222295113, 1.4655415450756988, 1.4048942364725152, 1.1598837108140867, 1.2138746600663755, 1.6400366887421873, 1.1566833328473722, 1.1399148536432002, 1.2981535555799664, 1.2844673263735151, 0.11776060314315462, 1.2300398969728958, 1.3046178498219292, 1.400508220323746, 1.2414466168491398, 0.6848906297487942, 0.893970737597515, 1.0362395206731259, 1.1428191897156876, 0.5589337865700517, 0.9644648483241082, 0.8897587588287597, 1.2914718434618502, 1.2690154836735033, 1.0896530171925178, 0.9639658052459414, 0.6028395755770815, 1.1632633999852717, 1.1134757086607796, 1.0657545091576928, 0.1829981414936498, -1.0181547496880896, -1.632467115571062, -0.9868760181311234, -1.1526366328512019, -0.8658175813300172, -1.2817200995812614, -1.183398026708233, -1.1377771961620673, -1.48318889090188, -1.2302600102549712, -1.1689763187001423, -1.3251556744957997, -1.4036413347586307, -1.353258865889712, -1.1488525605092257, -0.8423111897606652, -1.3330176173124655, -1.3006474577483877, -1.134210249293878, -1.8489782689346157, -2.3702732478932607, -1.3825015676753099, -1.4558311313702836, -2.0198181794858163, -1.5374951396689385, -1.5615750556827703, -1.749426933116656, -1.8067316257606252, -1.9180745674592945, -1.5807768345842894, -1.9956981500459385, -1.551137338317094, -1.504644821180777, -1.5911677112912275, -1.890907141827128, -1.7839501874996935, -1.7210766457188436, -1.8546370376190464, -1.7301010067999578, -1.6748319987041058, -1.9366107514431672, -2.0488495935371134, -1.6724804189655567, -1.689969574592166, -2.579327769492257, -1.769966364990729, -2.266999109845982, -1.843248782259479, -2.044069398033041, -1.7422889030465172, -2.395771002098033, -1.724741232634658, -2.0405996734773786, -2.336531992831688, -1.9740760117338219, -2.4911169905051755, -1.8496508131002427, -2.0723789987075842, -2.107684702605811, -2.459474482962097, -2.300566865038773, -2.001374888738451, -2.468183855413541, -2.038861494693638, -1.8154907439670158, -2.112159791689387, -2.3574484958918367, -1.9154953050332988, -1.9816681752058645, -2.0103851006028735, -2.4964656395306735, -2.1894462908641183, -2.1059531893237753, -2.178290617842516, -2.343401292217507, -2.3415273110344033, -2.4848286641270545, -1.9998246993348363, -2.5377104480231414, -2.2547091327585775, -2.197192125902522, -2.9005202365899434, -2.4810117286292233, -2.454614926748068, -2.0046015992361212, -2.3573006525801095, -2.0171545641641067, -2.2480763001574657, -2.0560402587361297, -2.0597435727617253, -2.370019617301363, -2.1926023870870797, -2.05005298925624, -2.0828938246453674, -2.080430886381377, -2.899944226830824, -1.9397409935707322, -1.9500207646206795, -2.441924625132838, -2.207089012328998, -1.9294070783773862, -2.1556653817439932, -2.1652656418033747, -2.013816243390375, -2.4552450712502085, -1.9412759718202595, -3.1823654875309146, -2.6749161359158826, -2.1828088357105284, -2.3007665056569953, -2.0791174992298584, -2.4553803432538204, -2.000005279907316, -2.0459518143874575, -1.9088202220807067, -2.2409588223870314, -2.3698005228258534, -2.025177301800076, -2.2508628458552202, -2.052562355115353, -2.4539541678313816, -1.9538576780143477, -1.8435892271481382, -1.787960136363637, -1.7356997724162595, -1.9268557016366743, -1.9537904600095204, -1.820400062898802, -1.8536236583204033, -2.266758143797232, -1.9682521346404986, -2.262948614614678, -1.8617394622454857, -1.88256044705615, -1.9055177725697936, -1.4909680871916822, -1.6595605888686067, -2.1988131657035064, -1.7695443481660542, -1.8288157146264152, -1.6500501183417895, -1.5705059773764967, -1.6237862171820807, -2.641278917307191, -1.5634542185817668, -2.069604773350047, -1.8428663979437294, -1.7921721645871138, -1.5452461532064612, -1.9568281566846026, -1.9776095321810763, -1.2630516272485384, -2.35917544531373, -1.7623252895231232, -1.6629301626107356, -1.828431939606047, -1.7579634023314457, -2.0201186420946824, -1.3972370116619697, -1.739471748032722, -1.4395635491279848, -1.5928637443315008, -2.868429020368238, -1.6735685018104136, -1.2927732370665703, -1.4881709860775594, -1.9276836299816087, -1.100178574276972, -1.2998762761138882, -1.2813856507812067, -1.1289828557245687, -1.106179530015619, -1.1340630148652449, -1.361111166248072, -1.4533528885971776, -1.2728781654412522, -1.1197472528644175, -1.2216831262460852, -1.2958896659662313, -1.1390505684565586, -1.1003523936840767, -0.8498393386246414], "rand_tv_weights_365": [1.8059571, 1.4103177, 1.2660004, 1.736704, 1.5292871, 1.7036423, 1.964222, 1.7593413, 1.1823915, 1.4614182, 1.874512, 1.2573351, 1.7813383, 1.5734406, 1.2822325, 1.7198778, 1.0877573, 1.2560757, 1.2299221, 1.2299377, 1.2738237, 1.2776857, 1.9638567, 1.3586736, 1.3337105, 1.7341456, 1.462125, 1.4933539, 1.8298551, 1.135507, 1.5189437, 1.038984, 1.2535932, 1.2396102, 1.3682542, 1.3302055, 1.3149736, 1.9977123, 1.5765374, 1.374451, 1.5237761, 1.9239633, 1.7838146, 1.4705903, 1.148638, 1.0730461, 1.0023152, 1.9054123, 1.1675217, 1.7434868, 1.9785571, 1.5832176, 1.8538436, 1.8216151, 1.9416477, 1.7378472, 1.4099191, 1.3079824, 1.5275078, 1.3237409, 1.9447994, 1.0871353, 1.1967253, 1.4032482, 1.549595, 1.5845724, 1.8410695, 1.2998495, 1.8048722, 1.3073282, 1.2955281, 1.8428469, 1.1394433, 1.9353212, 1.6867191, 1.562173, 1.2969944, 1.6868798, 1.8440912, 1.6924893, 1.8275565, 1.5838465, 1.3733263, 1.4666728, 1.3971065, 1.667507, 1.9728529, 1.8457025, 1.2022621, 1.4991332, 1.9096059, 1.999312, 1.9545225, 1.0846368, 1.2740255, 1.7254248, 1.0071738, 1.7150102, 1.0312012, 1.1672618, 1.7120356, 1.9425695, 1.0334316, 1.0557638, 1.5737543, 1.5576364, 1.8886997, 1.8732842, 1.7307644, 1.678943, 1.8146594, 1.8475301, 1.7547243, 1.2048233, 1.5687045, 1.3601643, 1.6222704, 1.9801781, 1.799186, 1.9275831, 1.3741815, 1.5850571, 1.1318007, 1.0004446, 1.7074926, 1.1929748, 1.9036432, 1.3195967, 1.1472, 1.9427219, 1.1909228, 1.8963735, 1.1445223, 1.4383729, 1.8618784, 1.8539789, 1.7104618, 1.9155618, 1.7951437, 1.8058182, 1.4433964, 1.6259003, 1.9322529, 1.163435, 1.7490742, 1.4054006, 1.5718274, 1.0857591, 1.619966, 1.8204929, 1.4750665, 1.9661717, 1.5766267, 1.3206552, 1.6794122, 1.8436168, 1.7553303, 1.1011847, 1.3287391, 1.8842264, 1.8820345, 1.0625394, 1.1737208, 1.3543942, 1.1972858, 1.6213419, 1.8357833, 1.0323667, 1.8625915, 1.064216, 1.7799384, 1.4067683, 1.4452345, 1.3557289, 1.3976546, 1.8809143, 1.3282795, 1.6765348, 1.7286878, 1.3204726, 1.5204366, 1.1098937, 1.798581, 1.4452215, 1.534292, 1.1327724, 1.7191496, 1.6493026, 1.9028291, 1.5886719, 1.9836101, 1.9693229, 1.6598383, 1.452926, 1.8193737, 1.702158, 1.5384491, 1.6873384, 1.9057939, 1.5726017, 1.3750719, 1.6425477, 1.5962535, 1.2915692, 1.90103, 1.2066537, 1.492222, 1.6599013, 1.8200117, 1.4986108, 1.6258502, 1.0905771, 1.0389785, 1.2277331, 1.927715, 1.2591617, 1.1590661, 1.5879739, 1.1452382, 1.2402063, 1.6753188, 1.0142347, 1.5944051, 1.2081637, 1.2219029, 1.3458641, 1.1559144, 1.9397188, 1.4272697, 1.2694959, 1.5957541, 1.177698, 1.3170059, 1.8294713, 1.2864271, 1.1521424, 1.2076881, 1.7543597, 1.1756374, 1.7604544, 1.5324766, 1.4511926, 1.058273, 1.8760482, 1.3840937, 1.8982337, 1.8865164, 1.8079659, 1.8740019, 1.9705975, 1.4526454, 1.7374961, 1.1889702, 1.8686481, 1.1244278, 1.8585798, 1.0240591, 1.8558926, 1.7750242, 1.1671312, 1.1917331, 1.8159435, 1.4883804, 1.5100457, 1.377636, 1.6649588, 1.0104118, 1.8682682, 1.7626605, 1.2139939, 1.6919149, 1.6328783, 1.581065, 1.4488926, 1.6587392, 1.1516161, 1.533948, 1.7975157, 1.8942762, 1.5146304, 1.1204434, 1.547856, 1.6612044, 1.6597142, 1.7377905, 1.8186539, 1.977066, 1.9072945, 1.0944173, 1.2002183, 1.9205259, 1.0188776, 1.649866, 1.6660139, 1.6075718, 1.7529279, 1.5867701, 1.3337494, 1.739074, 1.6899688, 1.0577313, 1.2563034, 1.0505038, 1.2409158, 1.4045958, 1.6364144, 1.5195105, 1.4542999, 1.0625554, 1.1209482, 1.5937738, 1.8942219, 1.6280245, 1.4296146, 1.6313601, 1.4889203, 1.9560837, 1.2630091, 1.7852334, 1.6130397, 1.5261812, 1.410587, 1.0336172, 1.2630248, 1.2201921, 1.3584988, 1.5543474, 1.4958188, 1.2816856, 1.4356602, 1.3476595, 1.7394634, 1.7262073, 1.5004272, 1.6689366, 1.747932, 1.0072575, 1.0744729, 1.508967, 1.8404284, 1.4849507, 1.1470229, 1.8259837, 1.0782641, 1.5835627, 1.0266373, 1.9611012, 1.4803326, 1.3399315, 1.8170185, 1.3063394, 1.9982633, 1.9001016, 1.2415259, 1.4259467, 1.8163651, 1.5678923, 1.3714806, 1.4132838, 1.1913692, 1.8526415, 1.2609572, 1.5847641, 1.3927328]}